{"learner":{"attributes":{},"feature_names":[],"feature_types":[],"gradient_booster":{"model":{"gbtree_model_param":{"num_parallel_tree":"1","num_trees":"1"},"iteration_indptr":[0,1],"tree_info":[0],"trees":[{"base_weights":[-1.8307242E-3,4.5725065E-1,-6.4139354E-1,-2.8078824E-1,1.4936736E0,-9.6480906E-2,-1.3157207E0,4.3144416E-2,-9.988013E-2,7.333175E-2,1.8196005E-1,-6.1426647E-2,8.309964E-2,-5.197789E-2,-1.5569833E-1],"categories":[],"categories_nodes":[],"categories_segments":[],"categories_sizes":[],"default_left":[0,0,0,0,0,0,0,0,0,0,0,0,0,0,0],"id":0,"left_children":[1,3,5,7,9,11,13,-1,-1,-1,-1,-1,-1,-1,-1],"loss_changes":[1.9272486E1,2.9649734E1,9.951099E0,1.2275502E1,2.6437035E0,8.3134165E0,1.5294132E0,0E0,0E0,0E0,0E0,0E0,0E0,0E0,0E0],"parents":[2147483647,0,0,1,1,2,2,3,3,4,4,5,5,6,6],"right_children":[2,4,6,8,10,12,14,-1,-1,-1,-1,-1,-1,-1,-1],"split_conditions":[3.6059874E-1,1.0898683E-1,1.1379243E0,8.5899013E-1,8.5899013E-1,9.039081E-1,-6.220023E-1,4.3144416E-2,-9.988013E-2,7.333175E-2,1.8196005E-1,-6.1426647E-2,8.309964E-2,-5.197789E-2,-1.5569833E-1],"split_indices":[1,1,7,5,5,1,0,0,0,0,0,0,0,0,0],"split_type":[0,0,0,0,0,0,0,0,0,0,0,0,0,0,0],"sum_hessian":[6.3640575E1,3.721356E1,2.642702E1,2.2161432E1,1.5052123E1,1.5248242E1,1.1178776E1,1.1325865E1,1.0835568E1,5.4913282E0,9.560795E0,1.0002063E1,5.24618E0,3.3340209E0,7.844755E0],"tree_param":{"num_deleted":"0","num_feature":"10","num_nodes":"15","size_leaf_vector":"1"}}]},"name":"gbtree"},"learner_model_param":{"base_score":"4.3034798E-1","boost_from_average":"1","num_class":"0","num_feature":"10","num_target":"1"},"objective":{"name":"binary:logistic","reg_loss_param":{"scale_pos_weight":"3.5999999"}}},"version":[2,2,0]}