{"learner":{"attributes":{},"feature_names":[],"feature_types":[],"gradient_booster":{"model":{"gbtree_model_param":{"num_parallel_tree":"1","num_trees":"27"},"iteration_indptr":[0,1,2,3,4,5,6,7,8,9,10,11,12,13,14,15,16,17,18,19,20,21,22,23,24,25,26,27],"tree_info":[0,0,0,0,0,0,0,0,0,0,0,0,0,0,0,0,0,0,0,0,0,0,0,0,0,0,0],"trees":[{"base_weights":[-3.5123783E-4,4.6070287E-1,-6.451275E-1,-1.7510775E-1,1.4151033E0,-2.0103152E-1,-1.3472848E0,9.878847E-3,-1.4370207E-1,1.5818606E-1,7.187321E-2,-7.388335E-2,5.697143E-2,-1.5844826E-1,-7.321713E-2],"categories":[],"categories_nodes":[],"categories_segments":[],"categories_sizes":[],"default_left":[0,0,0,0,0,0,0,0,0,0,0,0,0,0,0],"id":0,"left_children":[1,3,5,7,9,11,13,-1,-1,-1,-1,-1,-1,-1,-1],"loss_changes":[2.0263529E1,2.436561E1,8.591021E0,8.694158E0,7.2119904E-1,8.124212E0,4.207859E-1,0E0,0E0,0E0,0E0,0E0,0E0,0E0,0E0],"parents":[2147483647,0,0,1,1,2,2,3,3,4,4,5,5,6,6],"right_children":[2,4,6,8,10,12,14,-1,-1,-1,-1,-1,-1,-1,-1],"split_conditions":[3.9534515E-1,1.559705E-1,1.1584927E0,-2.406822E-1,2.8869927E-1,8.809763E-1,8.4891355E-1,9.878847E-3,-1.4370207E-1,1.5818606E-1,7.187321E-2,-7.388335E-2,5.697143E-2,-1.5844826E-1,-7.321713E-2],"split_indices":[1,1,7,1,0,1,1,0,0,0,0,0,0,0,0],"split_type":[0,0,0,0,0,0,0,0,0,0,0,0,0,0,0],"sum_hessian":[6.616408E1,3.8744728E1,2.7419348E1,2.3743565E1,1.5001164E1,1.7584146E1,9.835201E0,2.0266474E1,3.4770913E0,1.1077019E1,3.9241457E0,1.03816E1,7.202546E0,5.9607277E0,3.874473E0],"tree_param":{"num_deleted":"0","num_feature":"10","num_nodes":"15","size_leaf_vector":"1"}},{"base_weights":[-2.9553187E-3,4.162384E-1,-5.9373975E-1,-1.6343687E-1,1.2801914E0,-1.8250021E-1,-1.2509599E0,-1.3817357E-1,8.279822E-3,1.7160992E-1,8.998107E-2,-6.7617744E-2,5.178545E-2,-1.4737198E-1,-6.780668E-2],"categories":[],"categories_nodes":[],"categories_segments":[],"categories_sizes":[],"default_left":[0,0,0,0,0,0,0,0,0,0,0,0,0,0,0],"id":1,"left_children":[1,3,5,7,9,11,13,-1,-1,-1,-1,-1,-1,-1,-1],"loss_changes":[1.684588E1,2.0138304E1,7.4017363E0,7.5245824E0,1.124052E0,6.7588854E0,3.655758E-1,0E0,0E0,0E0,0E0,0E0,0E0,0E0,0E0],"parents":[2147483647,0,0,1,1,2,2,3,3,4,4,5,5,6,6],"right_children":[2,4,6,8,10,12,14,-1,-1,-1,-1,-1,-1,-1,-1],"split_conditions":[3.9534515E-1,1.559705E-1,1.1584927E0,-2.484095E-1,1.6758092E-1,8.809763E-1,8.4891355E-1,-1.3817357E-1,8.279822E-3,1.7160992E-1,8.998107E-2,-6.7617744E-2,5.178545E-2,-1.4737198E-1,-6.780668E-2],"split_indices":[1,1,7,4,1,1,1,0,0,0,0,0,0,0,0],"split_type":[0,0,0,0,0,0,0,0,0,0,0,0,0,0,0],"sum_hessian":[6.6024155E1,3.8793503E1,2.7230654E1,2.3701588E1,1.5091917E1,1.753576E1,9.694893E0,3.2096643E0,2.0491922E1,5.3963223E0,9.695595E0,1.0305779E1,7.2299814E0,5.8484163E0,3.8464763E0],"tree_param":{"num_deleted":"0","num_feature":"10","num_nodes":"15","size_leaf_vector":"1"}},{"base_weights":[-4.447478E-3,-1.50974E-1,1.3982177E-1,7.0753807E-1,-2.5123104E-1,1.1401226E-1,1.7922862E-3,-1.2436054E-1,1.2710397E-2],"categories":[],"categories_nodes":[],"categories_segments":[],"categories_sizes":[],"default_left":[0,0,0,0,0,0,0,0,0],"id":2,"left_children":[1,-1,3,5,7,-1,-1,-1,-1],"loss_changes":[1.4688551E1,0E0,1.3886631E1,7.5710983E0,1.4163047E1,0E0,0E0,0E0,0E0],"parents":[2147483647,0,0,2,2,3,3,4,4],"right_children":[2,-1,4,6,8,-1,-1,-1,-1],"split_conditions":[-9.6550465E-1,-1.50974E-1,-2.84754E-1,3.4660256E-1,-6.963652E-1,1.1401226E-1,1.7922862E-3,-1.2436054E-1,1.2710397E-2],"split_indices":[0,0,0,1,4,0,0,0,0],"split_type":[0,0,0,0,0,0,0,0,0],"sum_hessian":[6.5664955E1,4.915222E0,6.0749733E1,2.4447878E1,3.6301857E1,1.462228E1,9.825597E0,9.388564E0,2.6913292E1],"tree_param":{"num_deleted":"0","num_feature":"10","num_nodes":"9","size_leaf_vector":"1"}},{"base_weights":[-6.514497E-3,-1.4104299E-1,1.2612355E-1,4.7355887E-1,-4.2889756E-1,7.905757E-2,-2.5858283E-2,-1.5312491E-1,-6.773197E-3],"categories":[],"categories_nodes":[],"categories_segments":[],"categories_sizes":[],"default_left":[0,0,0,0,0,0,0,0,0],"id":3,"left_children":[1,-1,3,5,7,-1,-1,-1,-1],"loss_changes":[1.2535667E1,0E0,1.2072635E1,9.101127E0,9.539816E0,0E0,0E0,0E0,0E0],"parents":[2147483647,0,0,2,2,3,3,4,4],"right_children":[2,-1,4,6,8,-1,-1,-1,-1],"split_conditions":[-9.6550465E-1,-1.4104299E-1,1.1584927E0,9.769722E-2,-7.684791E-1,7.905757E-2,-2.5858283E-2,-1.5312491E-1,-6.773197E-3],"split_indices":[0,0,7,0,3,0,0,0,0],"split_type":[0,0,0,0,0,0,0,0,0],"sum_hessian":[6.536382E1,4.810726E0,6.0553093E1,3.7331116E1,2.3221975E1,2.5995342E1,1.1335775E1,4.931199E0,1.8290777E1],"tree_param":{"num_deleted":"0","num_feature":"10","num_nodes":"9","size_leaf_vector":"1"}},{"base_weights":[-9.907524E-3,3.3750704E-1,-5.06715E-1,-1.8143527E-1,1.1171386E0,-1.002228E0,-3.700695E-2,5.422035E-3,-1.2902953E-1,1.513127E-1,7.768481E-2,-5.740891E-2,-1.3768776E-1,-1.3071834E-1,4.018124E-2],"categories":[],"categories_nodes":[],"categories_segments":[],"categories_sizes":[],"default_left":[0,0,0,0,0,0,0,0,0,0,0,0,0,0,0],"id":4,"left_children":[1,3,5,7,9,11,13,-1,-1,-1,-1,-1,-1,-1,-1],"loss_changes":[1.1583345E1,1.6188179E1,6.3890014E0,6.4933753E0,9.7101784E-1,1.3585367E0,9.004259E0,0E0,0E0,0E0,0E0,0E0,0E0,0E0,0E0],"parents":[2147483647,0,0,1,1,2,2,3,3,4,4,5,5,6,6],"right_children":[2,4,6,8,10,12,14,-1,-1,-1,-1,-1,-1,-1,-1],"split_conditions":[3.9534515E-1,1.559705E-1,8.320351E-1,-2.406822E-1,1.6758092E-1,3.4981165E-2,-9.411629E-1,5.422035E-3,-1.2902953E-1,1.513127E-1,7.768481E-2,-5.740891E-2,-1.3768776E-1,-1.3071834E-1,4.018124E-2],"split_indices":[1,1,1,1,1,0,4,0,0,0,0,0,0,0,0],"split_type":[0,0,0,0,0,0,0,0,0,0,0,0,0,0,0],"sum_hessian":[6.512079E1,3.8510952E1,2.6609835E1,2.3581676E1,1.4929274E1,1.2397507E1,1.4212329E1,2.0232876E1,3.348801E0,5.3070326E0,9.622241E0,6.967538E0,5.4299684E0,3.14119E0,1.1071139E1],"tree_param":{"num_deleted":"0","num_feature":"10","num_nodes":"15","size_leaf_vector":"1"}},{"base_weights":[-1.1994311E-2,-1.3262634E-1,1.10083275E-1,1.0559674E-1,-7.136745E-2,4.214646E-3,-1.2777153E-1],"categories":[],"categories_nodes":[],"categories_segments":[],"categories_sizes":[],"default_left":[0,0,0,0,0,0,0],"id":5,"left_children":[1,-1,3,-1,5,-1,-1],"loss_changes":[1.0661126E1,0E0,1.0526223E1,0E0,7.1783166E0,0E0,0E0],"parents":[2147483647,0,0,2,2,4,4],"right_children":[2,-1,4,-1,6,-1,-1],"split_conditions":[-9.6550465E-1,-1.3262634E-1,-7.1246433E-1,1.0559674E-1,1.057265E0,4.214646E-3,-1.2777153E-1],"split_indices":[0,0,0,0,0,0,0],"split_type":[0,0,0,0,0,0,0],"sum_hessian":[6.453818E1,4.6468444E0,5.989133E1,8.8641E0,5.102723E1,4.7520725E1,3.506503E0],"tree_param":{"num_deleted":"0","num_feature":"10","num_nodes":"7","size_leaf_vector":"1"}},{"base_weights":[-1.3396328E-2,3.0341503E-1,-4.6970966E-1,-1.7297415E-1,1.0244282E0,-1.1657112E-1,-1.0590287E0,3.913796E-3,-1.2000864E-1,1.41166E-1,6.9947146E-2,-5.3678162E-2,4.627166E-2,-5.6816112E-2,-1.2954766E-1],"categories":[],"categories_nodes":[],"categories_segments":[],"categories_sizes":[],"default_left":[0,0,0,0,0,0,0,0,0,0,0,0,0,0,0],"id":6,"left_children":[1,3,5,7,9,11,13,-1,-1,-1,-1,-1,-1,-1,-1],"loss_changes":[9.571149E0,1.3608075E1,5.520231E0,5.362985E0,9.8833275E-1,4.6496916E0,4.2897224E-1,0E0,0E0,0E0,0E0,0E0,0E0,0E0,0E0],"parents":[2147483647,0,0,1,1,2,2,3,3,4,4,5,5,6,6],"right_children":[2,4,6,8,10,12,14,-1,-1,-1,-1,-1,-1,-1,-1],"split_conditions":[3.9534515E-1,1.559705E-1,1.1584927E0,-2.406822E-1,1.6758092E-1,8.809763E-1,4.6537176E-1,3.913796E-3,-1.2000864E-1,1.41166E-1,6.9947146E-2,-5.3678162E-2,4.627166E-2,-5.6816112E-2,-1.2954766E-1],"split_indices":[1,1,7,1,1,1,3,0,0,0,0,0,0,0,0],"split_type":[0,0,0,0,0,0,0,0,0,0,0,0,0,0,0],"sum_hessian":[6.42206E1,3.810202E1,2.6118576E1,2.3400736E1,1.4701283E1,1.7080944E1,9.037632E0,2.0192595E1,3.2081404E0,5.182025E0,9.5192585E0,9.942276E0,7.1386685E0,4.044376E0,4.9932566E0],"tree_param":{"num_deleted":"0","num_feature":"10","num_nodes":"15","size_leaf_vector":"1"}},{"base_weights":[-1.3889688E-2,-1.2561329E-1,9.898866E-2,8.8616365E-1,-8.3049856E-2,1.0593802E-1,3.0515308E-2,-6.69439E-2,1.7629428E-2],"categories":[],"categories_nodes":[],"categories_segments":[],"categories_sizes":[],"default_left":[0,0,0,0,0,0,0,0,0],"id":7,"left_children":[1,-1,3,5,7,-1,-1,-1,-1],"loss_changes":[9.167841E0,0E0,8.67835E0,8.2041645E-1,7.6738887E0,0E0,0E0,0E0,0E0],"parents":[2147483647,0,0,2,2,3,3,4,4],"right_children":[2,-1,4,6,8,-1,-1,-1,-1],"split_conditions":[-9.6550465E-1,-1.2561329E-1,-6.5709716E-1,1.1584927E0,-6.186604E-1,1.0593802E-1,3.0515308E-2,-6.69439E-2,1.7629428E-2],"split_indices":[0,0,0,7,4,0,0,0,0],"split_type":[0,0,0,0,0,0,0,0,0],"sum_hessian":[6.3493977E1,4.4452405E0,5.9048737E1,1.0364094E1,4.8684643E1,7.349614E0,3.0144799E0,1.4444249E1,3.4240395E1],"tree_param":{"num_deleted":"0","num_feature":"10","num_nodes":"9","size_leaf_vector":"1"}},{"base_weights":[-1.3410138E-2,-1.1959695E-1,9.0911254E-2,3.723496E-1,-3.6642528E-1,8.564785E-2,2.3719703E-3,-1.4218096E-1,-1.7206824E-3],"categories":[],"categories_nodes":[],"categories_segments":[],"categories_sizes":[],"default_left":[0,0,0,0,0,0,0,0,0],"id":8,"left_children":[1,-1,3,5,7,-1,-1,-1,-1],"loss_changes":[8.00858E0,0E0,7.8300796E0,6.3088264E0,8.553802E0,0E0,0E0,0E0,0E0],"parents":[2147483647,0,0,2,2,3,3,4,4],"right_children":[2,-1,4,6,8,-1,-1,-1,-1],"split_conditions":[-9.6550465E-1,-1.1959695E-1,1.1584927E0,-2.84754E-1,-7.684791E-1,8.564785E-2,2.3719703E-3,-1.4218096E-1,-1.7206824E-3],"split_indices":[0,0,7,0,3,0,0,0,0],"split_type":[0,0,0,0,0,0,0,0,0],"sum_hessian":[6.3035786E1,4.261726E0,5.877406E1,3.6498955E1,2.2275105E1,1.4670248E1,2.1828707E1,4.7745066E0,1.7500597E1],"tree_param":{"num_deleted":"0","num_feature":"10","num_nodes":"9","size_leaf_vector":"1"}},{"base_weights":[-1.5155892E-2,2.6908764E-1,-4.3018875E-1,-1.639762E-1,9.333803E-1,-8.759463E-1,-1.8670112E-2,2.6379141E-3,-1.1186649E-1,1.3074833E-1,6.274875E-2,-4.8385233E-2,-1.2301686E-1,-6.376423E-2,6.321078E-2],"categories":[],"categories_nodes":[],"categories_segments":[],"categories_sizes":[],"default_left":[0,0,0,0,0,0,0,0,0,0,0,0,0,0,0],"id":9,"left_children":[1,3,5,7,9,11,13,-1,-1,-1,-1,-1,-1,-1,-1],"loss_changes":[7.6142507E0,1.1182932E1,4.7937155E0,4.402E0,9.28175E-1,1.1499815E0,6.3068266E0,0E0,0E0,0E0,0E0,0E0,0E0,0E0,0E0],"parents":[2147483647,0,0,1,1,2,2,3,3,4,4,5,5,6,6],"right_children":[2,4,6,8,10,12,14,-1,-1,-1,-1,-1,-1,-1,-1],"split_conditions":[3.9534515E-1,1.559705E-1,8.320351E-1,-2.406822E-1,1.6758092E-1,3.4981165E-2,-7.708421E-1,2.6379141E-3,-1.1186649E-1,1.3074833E-1,6.274875E-2,-4.8385233E-2,-1.2301686E-1,-6.376423E-2,6.321078E-2],"split_indices":[1,1,1,1,1,0,4,0,0,0,0,0,0,0,0],"split_type":[0,0,0,0,0,0,0,0,0,0,0,0,0,0,0],"sum_hessian":[6.2562477E1,3.734064E1,2.5221836E1,2.3060354E1,1.4280287E1,1.15655E1,1.3656336E1,2.0037455E1,3.022899E0,4.95098E0,9.329307E0,6.6122537E0,4.953247E0,7.0095506E0,6.6467853E0],"tree_param":{"num_deleted":"0","num_feature":"10","num_nodes":"15","size_leaf_vector":"1"}},{"base_weights":[-1.5375137E-2,-1.14073984E-1,8.14649E-2,1.7199175E-1,-1.14628315E-1,4.315498E-2,-2.6269887E-2],"categories":[],"categories_nodes":[],"categories_segments":[],"categories_sizes":[],"default_left":[0,0,0,0,0,0,0],"id":10,"left_children":[1,-1,3,5,-1,-1,-1],"loss_changes":[6.934339E0,0E0,6.7252965E0,6.3834095E0,0E0,0E0,0E0],"parents":[2147483647,0,0,2,2,3,3],"right_children":[2,-1,4,6,-1,-1,-1],"split_conditions":[-9.6550465E-1,-1.14073984E-1,1.057265E0,1.1584927E0,-1.14628315E-1,4.315498E-2,-2.6269887E-2],"split_indices":[0,0,0,7,0,0,0],"split_type":[0,0,0,0,0,0,0],"sum_hessian":[6.1776527E1,4.0406833E0,5.7735847E1,5.457195E1,3.1638985E0,3.417371E1,2.0398237E1],"tree_param":{"num_deleted":"0","num_feature":"10","num_nodes":"7","size_leaf_vector":"1"}},{"base_weights":[-1.7629588E-2,2.4359457E-1,-4.0144685E-1,-5.3798574E-1,5.843875E-1,-9.757907E-2,-9.487724E-1,6.781651E-2,-1.2134979E-1,1.0188764E-1,1.0118939E-2,-4.299848E-2,4.867841E-2,-3.913823E-2,-1.23914815E-1],"categories":[],"categories_nodes":[],"categories_segments":[],"categories_sizes":[],"default_left":[0,0,0,0,0,0,0,0,0,0,0,0,0,0,0],"id":11,"left_children":[1,3,5,7,9,11,13,-1,-1,-1,-1,-1,-1,-1,-1],"loss_changes":[6.344132E0,1.0354066E1,4.1663094E0,1.0652893E1,5.508092E0,3.6242392E0,9.7605705E-1,0E0,0E0,0E0,0E0,0E0,0E0,0E0,0E0],"parents":[2147483647,0,0,1,1,2,2,3,3,4,4,5,5,6,6],"right_children":[2,4,6,8,10,12,14,-1,-1,-1,-1,-1,-1,-1,-1],"split_conditions":[3.9534515E-1,-8.8519716E-1,6.947248E-1,-1.9592593E0,-3.0633906E-1,2.9844388E-1,-9.235053E-1,6.781651E-2,-1.2134979E-1,1.0188764E-1,1.0118939E-2,-4.299848E-2,4.867841E-2,-3.913823E-2,-1.23914815E-1],"split_indices":[1,1,3,1,0,3,4,0,0,0,0,0,0,0,0],"split_type":[0,0,0,0,0,0,0,0,0,0,0,0,0,0,0],"sum_hessian":[6.1299976E1,3.6692543E1,2.4607431E1,1.0965485E1,2.572706E1,1.6580463E1,8.026967E0,3.914368E0,7.051116E0,1.2962576E1,1.2764484E1,1.0737047E1,5.843417E0,3.5535703E0,4.4733973E0],"tree_param":{"num_deleted":"0","num_feature":"10","num_nodes":"15","size_leaf_vector":"1"}},{"base_weights":[-1.7767163E-2,-1.1007196E-1,7.335904E-2,2.8845957E-1,-3.920701E-1,-1.0529843E-2,8.727626E-2,-1.3117091E-1,3.2262553E-2],"categories":[],"categories_nodes":[],"categories_segments":[],"categories_sizes":[],"default_left":[0,0,0,0,0,0,0,0,0],"id":12,"left_children":[1,-1,3,5,7,-1,-1,-1,-1],"loss_changes":[6.1715856E0,0E0,5.9063873E0,9.329962E0,1.2723413E1,0E0,0E0,0E0,0E0],"parents":[2147483647,0,0,2,2,3,3,4,4],"right_children":[2,-1,4,6,8,-1,-1,-1,-1],"split_conditions":[-9.6550465E-1,-1.1007196E-1,9.769722E-2,3.9460117E-1,-5.27146E-1,-1.0529843E-2,8.727626E-2,-1.3117091E-1,3.2262553E-2],"split_indices":[0,0,0,3,4,0,0,0,0],"split_type":[0,0,0,0,0,0,0,0,0],"sum_hessian":[6.0719776E1,3.8528678E0,5.686691E1,3.9152573E1,1.7714336E1,2.387987E1,1.5272701E1,7.3811965E0,1.033314E1],"tree_param":{"num_deleted":"0","num_feature":"10","num_nodes":"9","size_leaf_vector":"1"}},{"base_weights":[-1.885833E-2,-1.0580792E-1,6.569851E-2,7.9059803E-1,-7.356974E-2,4.0159877E-2,9.404297E-2,1.5475919E-2,-4.3215115E-2],"categories":[],"categories_nodes":[],"categories_segments":[],"categories_sizes":[],"default_left":[0,0,0,0,0,0,0,0,0],"id":13,"left_children":[1,-1,3,5,7,-1,-1,-1,-1],"loss_changes":[5.4407682E0,0E0,5.859804E0,1.6707945E-1,4.0886216E0,0E0,0E0,0E0,0E0],"parents":[2147483647,0,0,2,2,3,3,4,4],"right_children":[2,-1,4,6,8,-1,-1,-1,-1],"split_conditions":[-9.6550465E-1,-1.0580792E-1,-7.1246433E-1,-3.472807E-1,1.1584927E0,4.0159877E-2,9.404297E-2,1.5475919E-2,-4.3215115E-2],"split_indices":[0,0,0,3,7,0,0,0,0],"split_type":[0,0,0,0,0,0,0,0,0],"sum_hessian":[6.0125023E1,3.6577158E0,5.6467308E1,8.346497E0,4.812081E1,3.344276E0,5.00222E0,2.974739E1,1.837342E1],"tree_param":{"num_deleted":"0","num_feature":"10","num_nodes":"9","size_leaf_vector":"1"}},{"base_weights":[-1.7233722E-2,2.1274519E-1,-3.6164358E-1,-5.0915974E-1,5.324317E-1,-7.7533937E-1,3.2841687E-3,-1.1556532E-1,5.708154E-2,9.430351E-2,8.328555E-3,-4.232877E-2,-1.1126417E-1,-5.863169E-2,6.1130553E-2],"categories":[],"categories_nodes":[],"categories_segments":[],"categories_sizes":[],"default_left":[0,0,0,0,0,0,0,0,0,0,0,0,0,0,0],"id":14,"left_children":[1,3,5,7,9,11,13,-1,-1,-1,-1,-1,-1,-1,-1],"loss_changes":[4.8814764E0,8.810265E0,3.7250183E0,8.945522E0,4.7409887E0,9.018302E-1,5.4118934E0,0E0,0E0,0E0,0E0,0E0,0E0,0E0,0E0],"parents":[2147483647,0,0,1,1,2,2,3,3,4,4,5,5,6,6],"right_children":[2,4,6,8,10,12,14,-1,-1,-1,-1,-1,-1,-1,-1],"split_conditions":[3.9534515E-1,-8.8519716E-1,8.320351E-1,2.1435499E-1,-3.0633906E-1,3.4981165E-2,-7.708421E-1,-1.1556532E-1,5.708154E-2,9.430351E-2,8.328555E-3,-4.232877E-2,-1.1126417E-1,-5.863169E-2,6.1130553E-2],"split_indices":[1,1,1,3,0,0,4,0,0,0,0,0,0,0,0],"split_type":[0,0,0,0,0,0,0,0,0,0,0,0,0,0,0],"sum_hessian":[5.9657997E1,3.6000824E1,2.3657177E1,1.086751E1,2.5133312E1,1.0560621E1,1.3096555E1,6.7542276E0,4.1132817E0,1.2555567E1,1.2577746E1,6.2706704E0,4.2899513E0,6.6671176E0,6.4294367E0],"tree_param":{"num_deleted":"0","num_feature":"10","num_nodes":"15","size_leaf_vector":"1"}},{"base_weights":[-1.7646097E-2,-1.02838494E-1,6.3037336E-2,7.031663E-1,-5.8597103E-2,8.577677E-2,3.2281145E-2,1.5320634E-2,-3.958541E-2],"categories":[],"categories_nodes":[],"categories_segments":[],"categories_sizes":[],"default_left":[0,0,0,0,0,0,0,0,0],"id":15,"left_children":[1,-1,3,5,7,-1,-1,-1,-1],"loss_changes":[4.95341E0,0E0,4.437017E0,2.5772142E-1,3.515468E0,0E0,0E0,0E0,0E0],"parents":[2147483647,0,0,2,2,3,3,4,4],"right_children":[2,-1,4,6,8,-1,-1,-1,-1],"split_conditions":[-9.6550465E-1,-1.02838494E-1,-7.1246433E-1,4.6079153E-1,1.1584927E0,8.577677E-2,3.2281145E-2,1.5320634E-2,-3.958541E-2],"split_indices":[0,0,0,4,7,0,0,0,0],"split_type":[0,0,0,0,0,0,0,0,0],"sum_hessian":[5.894593E1,3.4892619E0,5.5456665E1,8.091631E0,4.7365036E1,4.860731E0,3.2309003E0,2.9428892E1,1.7936144E1],"tree_param":{"num_deleted":"0","num_feature":"10","num_nodes":"9","size_leaf_vector":"1"}},{"base_weights":[-1.6286375E-2,-9.920977E-2,5.8720183E-2,1.4439763E-1,-7.6752484E-2,3.221526E-3,1.1297768E-1],"categories":[],"categories_nodes":[],"categories_segments":[],"categories_sizes":[],"default_left":[0,0,0,0,0,0,0],"id":16,"left_children":[1,-1,3,5,-1,-1,-1],"loss_changes":[4.411705E0,0E0,4.0877123E0,5.6832466E0,0E0,0E0,0E0],"parents":[2147483647,0,0,2,2,3,3],"right_children":[2,-1,4,6,-1,-1,-1],"split_conditions":[-9.6550465E-1,-9.920977E-2,1.1660918E0,1.0193835E0,-7.6752484E-2,3.221526E-3,1.1297768E-1],"split_indices":[0,0,3,3,0,0,0],"split_type":[0,0,0,0,0,0,0],"sum_hessian":[5.8479645E1,3.301491E0,5.5178154E1,5.074173E1,4.436426E0,4.648253E1,4.259199E0],"tree_param":{"num_deleted":"0","num_feature":"10","num_nodes":"7","size_leaf_vector":"1"}},{"base_weights":[-1.595391E-2,1.9300279E-1,-3.343409E-1,-1.8152912E-1,7.8872174E-1,-5.3825542E-2,-8.5814095E-1,-4.754543E-2,3.8518395E-2,1.1610886E-1,5.0276686E-2,-3.6691632E-2,4.8897725E-2,-1.2104982E-1,-3.5706673E-2],"categories":[],"categories_nodes":[],"categories_segments":[],"categories_sizes":[],"default_left":[0,0,0,0,0,0,0,0,0,0,0,0,0,0,0],"id":17,"left_children":[1,3,5,7,9,11,13,-1,-1,-1,-1,-1,-1,-1,-1],"loss_changes":[4.005215E0,8.263699E0,3.4562032E0,4.040842E0,9.321499E-1,2.9988513E0,1.0237274E0,0E0,0E0,0E0,0E0,0E0,0E0,0E0,0E0],"parents":[2147483647,0,0,1,1,2,2,3,3,4,4,5,5,6,6],"right_children":[2,4,6,8,10,12,14,-1,-1,-1,-1,-1,-1,-1,-1],"split_conditions":[3.9534515E-1,1.559705E-1,6.947248E-1,2.1435499E-1,1.6758092E-1,2.9844388E-1,-1.0196366E-1,-4.754543E-2,3.8518395E-2,1.1610886E-1,5.0276686E-2,-3.6691632E-2,4.8897725E-2,-1.2104982E-1,-3.5706673E-2],"split_indices":[1,1,3,3,1,3,0,0,0,0,0,0,0,0,0],"split_type":[0,0,0,0,0,0,0,0,0,0,0,0,0,0,0],"sum_hessian":[5.823252E1,3.5396008E1,2.2836514E1,2.2159489E1,1.323652E1,1.5590143E1,7.2463703E0,1.4697617E1,7.461873E0,4.4202013E0,8.8163185E0,1.009268E1,5.4974637E0,3.4232924E0,3.823078E0],"tree_param":{"num_deleted":"0","num_feature":"10","num_nodes":"15","size_leaf_vector":"1"}},{"base_weights":[-1.4237031E-2,-9.5444284E-2,5.5059273E-2,2.3277688E-1,-3.3638504E-1,-1.37607725E-2,7.804754E-2,-1.2282576E-1,3.0241704E-2],"categories":[],"categories_nodes":[],"categories_segments":[],"categories_sizes":[],"default_left":[0,0,0,0,0,0,0,0,0],"id":18,"left_children":[1,-1,3,5,7,-1,-1,-1,-1],"loss_changes":[3.873588E0,0E0,3.9439073E0,7.9798603E0,1.0489546E1,0E0,0E0,0E0,0E0],"parents":[2147483647,0,0,2,2,3,3,4,4],"right_children":[2,-1,4,6,8,-1,-1,-1,-1],"split_conditions":[-9.6550465E-1,-9.5444284E-2,9.769722E-2,3.9460117E-1,-5.27146E-1,-1.37607725E-2,7.804754E-2,-1.2282576E-1,3.0241704E-2],"split_indices":[0,0,0,3,4,0,0,0,0],"split_type":[0,0,0,0,0,0,0,0,0],"sum_hessian":[5.764733E1,3.0803308E0,5.4567E1,3.7807533E1,1.6759464E1,2.3001427E1,1.4806108E1,6.6091943E0,1.015027E1],"tree_param":{"num_deleted":"0","num_feature":"10","num_nodes":"9","size_leaf_vector":"1"}},{"base_weights":[-1.5552983E-2,1.8293637E-1,-2.9524383E-1,-1.6615936E-1,8.103561E-1,-4.552785E-2,-7.975098E-1,5.9644606E-2,-3.5184216E-2,2.973246E-2,9.860483E-2,-3.8185056E-2,6.8863384E-2,-1.1196127E-1,-2.4623329E-2],"categories":[],"categories_nodes":[],"categories_segments":[],"categories_sizes":[],"default_left":[0,0,0,0,0,0,0,0,0,0,0,0,0,0,0],"id":19,"left_children":[1,3,5,7,9,11,13,-1,-1,-1,-1,-1,-1,-1,-1],"loss_changes":[3.275363E0,7.703706E0,3.032658E0,3.4714136E0,8.3568764E-1,4.560218E0,1.156393E0,0E0,0E0,0E0,0E0,0E0,0E0,0E0,0E0],"parents":[2147483647,0,0,1,1,2,2,3,3,4,4,5,5,6,6],"right_children":[2,4,6,8,10,12,14,-1,-1,-1,-1,-1,-1,-1,-1],"split_conditions":[3.6586902E-1,1.559705E-1,1.1584927E0,-1.9592593E0,-6.152922E-1,8.731416E-1,-1.1139205E-1,5.9644606E-2,-3.5184216E-2,2.973246E-2,9.860483E-2,-3.8185056E-2,6.8863384E-2,-1.1196127E-1,-2.4623329E-2],"split_indices":[1,1,7,1,4,5,0,0,0,0,0,0,0,0,0],"split_type":[0,0,0,0,0,0,0,0,0,0,0,0,0,0,0],"sum_hessian":[5.702601E1,3.355724E1,2.346877E1,2.2033175E1,1.1524066E1,1.6403795E1,7.064975E0,3.881117E0,1.8152058E1,3.6265707E0,7.8974953E0,1.1579197E1,4.8245983E0,3.8086753E0,3.2562993E0],"tree_param":{"num_deleted":"0","num_feature":"10","num_nodes":"15","size_leaf_vector":"1"}},{"base_weights":[-1.33040035E-2,-4.8058358E-1,1.0345015E-1,5.4938477E-2,-1.0657874E0,4.8668337E-1,-2.7377495E-1,-1.3130574E-1,-5.1078837E-2,8.886144E-2,1.1959292E-3,-6.3088775E-2,6.163241E-3],"categories":[],"categories_nodes":[],"categories_segments":[],"categories_sizes":[],"default_left":[0,0,0,0,0,0,0,0,0,0,0,0,0],"id":20,"left_children":[1,3,5,-1,7,9,11,-1,-1,-1,-1,-1,-1],"loss_changes":[3.1785932E0,7.6027164E0,6.885687E0,0E0,3.9481163E-1,4.4790125E0,2.9349813E0,0E0,0E0,0E0,0E0,0E0,0E0],"parents":[2147483647,0,0,1,1,2,2,4,4,5,5,6,6],"right_children":[2,4,6,-1,8,10,12,-1,-1,-1,-1,-1,-1],"split_conditions":[-8.8519716E-1,-1.9592593E0,3.6586902E-1,5.4938477E-2,-7.647989E-2,-3.0633906E-1,8.320351E-1,-1.3130574E-1,-5.1078837E-2,8.886144E-2,1.1959292E-3,-6.3088775E-2,6.163241E-3],"split_indices":[1,1,1,0,0,0,1,0,0,0,0,0,0],"split_type":[0,0,0,0,0,0,0,0,0,0,0,0,0],"sum_hessian":[5.6350777E1,1.0642121E1,4.5708652E1,3.8779953E0,6.7641263E0,2.2529827E1,2.3178827E1,3.73444E0,3.0296862E0,1.172817E1,1.0801656E1,1.0799497E1,1.2379331E1],"tree_param":{"num_deleted":"0","num_feature":"10","num_nodes":"13","size_leaf_vector":"1"}},{"base_weights":[-1.3811119E-2,5.5294316E-2,-7.252468E-2,-4.6421997E-2,9.7382195E-2,-1.7365448E-2,5.710143E-2],"categories":[],"categories_nodes":[],"categories_segments":[],"categories_sizes":[],"default_left":[0,0,0,0,0,0,0],"id":21,"left_children":[1,3,-1,5,-1,-1,-1],"loss_changes":[2.8300436E0,4.9644966E0,0E0,3.8980422E0,0E0,0E0,0E0],"parents":[2147483647,0,0,1,1,3,3],"right_children":[2,4,-1,6,-1,-1,-1],"split_conditions":[1.1660918E0,1.0193835E0,-7.252468E-2,6.12105E-1,9.7382195E-2,-1.7365448E-2,5.710143E-2],"split_indices":[3,3,0,0,0,0,0],"split_type":[0,0,0,0,0,0,0],"sum_hessian":[5.5747574E1,5.165257E1,4.095004E0,4.735771E1,4.2948585E0,3.986222E1,7.4954896E0],"tree_param":{"num_deleted":"0","num_feature":"10","num_nodes":"7","size_leaf_vector":"1"}},{"base_weights":[-1.1364153E-2,-4.5683518E-1,9.9420235E-2,1.8621814E-1,-1.289531E-1,4.528138E-1,-2.4903166E-1,-5.020907E-2,7.850915E-2,8.396844E-2,1.4473023E-4,-1.7292155E-3,-7.355782E-2],"categories":[],"categories_nodes":[],"categories_segments":[],"categories_sizes":[],"default_left":[0,0,0,0,0,0,0,0,0,0,0,0,0],"id":22,"left_children":[1,3,5,7,-1,9,11,-1,-1,-1,-1,-1,-1],"loss_changes":[2.8402562E0,6.3752723E0,5.798666E0,3.4192963E0,0E0,4.063823E0,2.6814623E0,0E0,0E0,0E0,0E0,0E0,0E0],"parents":[2147483647,0,0,1,1,2,2,3,3,5,5,6,6],"right_children":[2,4,6,8,-1,10,12,-1,-1,-1,-1,-1,-1],"split_conditions":[-8.8519716E-1,-1.7464025E0,3.6586902E-1,-6.766735E-1,-1.289531E-1,-3.0633906E-1,1.1584927E0,-5.020907E-2,7.850915E-2,8.396844E-2,1.4473023E-4,-1.7292155E-3,-7.355782E-2],"split_indices":[1,1,1,3,0,0,7,0,0,0,0,0,0],"split_type":[0,0,0,0,0,0,0,0,0,0,0,0,0],"sum_hessian":[5.5631565E1,1.045753E1,4.5174034E1,6.3387594E0,4.1187706E0,2.2279285E1,2.2894749E1,3.024356E0,3.3144035E0,1.1533498E1,1.0745789E1,1.6209696E1,6.6850514E0],"tree_param":{"num_deleted":"0","num_feature":"10","num_nodes":"13","size_leaf_vector":"1"}},{"base_weights":[-1.2115278E-2,1.2234584E-1,-3.3170828E-1,-1.9261623E-2,1.1782495E-1,-1.17071144E-1,2.3431362E-1,-3.1088993E-2,4.191444E-2,-7.783845E-2,8.4498845E-2],"categories":[],"categories_nodes":[],"categories_segments":[],"categories_sizes":[],"default_left":[0,0,0,0,0,0,0,0,0,0,0],"id":23,"left_children":[1,3,5,7,-1,-1,9,-1,-1,-1,-1],"loss_changes":[2.4444118E0,6.0191402E0,8.269027E0,4.777101E0,0E0,0E0,7.3899455E0,0E0,0E0,0E0,0E0],"parents":[2147483647,0,0,1,1,2,2,3,3,6,6],"right_children":[2,4,6,8,-1,-1,10,-1,-1,-1,-1],"split_conditions":[9.769722E-2,1.8516151E-2,-5.27146E-1,3.1255332E-1,1.1782495E-1,-1.17071144E-1,5.40324E-1,-3.1088993E-2,4.191444E-2,-7.783845E-2,8.4498845E-2],"split_indices":[0,0,4,3,0,0,0,0,0,0,0],"split_type":[0,0,0,0,0,0,0,0,0,0,0],"sum_hessian":[5.493833E1,3.9103607E1,1.5834725E1,3.534521E1,3.7583957E0,5.948728E0,9.885997E0,2.140046E1,1.3944753E1,3.615571E0,6.2704263E0],"tree_param":{"num_deleted":"0","num_feature":"10","num_nodes":"11","size_leaf_vector":"1"}},{"base_weights":[-1.09663755E-2,-4.2955709E-1,9.253016E-2,4.5093518E-2,-9.492109E-1,4.9607378E-1,-2.0398265E-1,-4.986778E-2,-1.1562731E-1,7.8073345E-2,-1.1364853E-2,-1.3232055E-1,7.7859745E-3],"categories":[],"categories_nodes":[],"categories_segments":[],"categories_sizes":[],"default_left":[0,0,0,0,0,0,0,0,0,0,0,0,0],"id":24,"left_children":[1,3,5,-1,7,9,11,-1,-1,-1,-1,-1,-1],"loss_changes":[2.4410493E0,5.536645E0,5.5171933E0,0E0,1.08439445E-1,3.4667664E0,8.557035E0,0E0,0E0,0E0,0E0,0E0,0E0],"parents":[2147483647,0,0,1,1,2,2,4,4,5,5,6,6],"right_children":[2,4,6,-1,8,10,12,-1,-1,-1,-1,-1,-1],"split_conditions":[-8.8519716E-1,-1.9592593E0,-2.7064982E-1,4.5093518E-2,-1.3873708E0,1.1584927E0,2.9844388E-1,-4.986778E-2,-1.1562731E-1,7.8073345E-2,-1.1364853E-2,-1.3232055E-1,7.7859745E-3],"split_indices":[1,1,3,0,1,7,3,0,0,0,0,0,0],"split_type":[0,0,0,0,0,0,0,0,0,0,0,0,0],"sum_hessian":[5.4428284E1,1.0165117E1,4.4263165E1,3.8217876E0,6.34333E0,1.8462847E1,2.5800318E1,3.0705872E0,3.2727427E0,1.2395373E1,6.067474E0,4.446803E0,2.1353516E1],"tree_param":{"num_deleted":"0","num_feature":"10","num_nodes":"13","size_leaf_vector":"1"}},{"base_weights":[-1.3439583E-2,5.075056E-2,-6.848391E-2,-4.1245673E-2,8.628395E-2,-7.7186145E-2,5.476211E-3],"categories":[],"categories_nodes":[],"categories_segments":[],"categories_sizes":[],"default_left":[0,0,0,0,0,0,0],"id":25,"left_children":[1,3,-1,5,-1,-1,-1],"loss_changes":[2.3993838E0,3.8465288E0,0E0,3.3232312E0,0E0,0E0,0E0],"parents":[2147483647,0,0,1,1,3,3],"right_children":[2,4,-1,6,-1,-1,-1],"split_conditions":[1.1660918E0,1.0193835E0,-6.848391E-2,-7.708421E-1,8.628395E-2,-7.7186145E-2,5.476211E-3],"split_indices":[3,3,0,4,0,0,0],"split_type":[0,0,0,0,0,0,0],"sum_hessian":[5.386728E1,5.0010376E1,3.8569052E0,4.5774136E1,4.2362413E0,4.4988065E0,4.127533E1],"tree_param":{"num_deleted":"0","num_feature":"10","num_nodes":"7","size_leaf_vector":"1"}},{"base_weights":[-1.3229584E-2,1.1412951E-1,-3.2350525E-1,-1.3788926E-2,1.05806306E-1,-1.12018704E-1,1.9213627E-1,-2.7883023E-2,3.788581E-2,-7.236863E-2,7.5354196E-2],"categories":[],"categories_nodes":[],"categories_segments":[],"categories_sizes":[],"default_left":[0,0,0,0,0,0,0,0,0,0,0],"id":26,"left_children":[1,3,5,7,-1,-1,9,-1,-1,-1,-1],"loss_changes":[2.1968536E0,4.7830606E0,6.856875E0,3.8276868E0,0E0,0E0,6.030525E0,0E0,0E0,0E0,0E0],"parents":[2147483647,0,0,1,1,2,2,3,3,6,6],"right_children":[2,4,6,8,-1,-1,10,-1,-1,-1,-1],"split_conditions":[9.769722E-2,1.8516151E-2,-5.27146E-1,3.1255332E-1,1.05806306E-1,-1.12018704E-1,5.40324E-1,-2.7883023E-2,3.788581E-2,-7.236863E-2,7.5354196E-2],"split_indices":[0,0,4,3,0,0,0,0,0,0,0],"split_type":[0,0,0,0,0,0,0,0,0,0,0],"sum_hessian":[5.3659096E1,3.849159E1,1.5167505E1,3.4765663E1,3.7259245E0,5.498988E0,9.668517E0,2.0928532E1,1.3837132E1,3.5645676E0,6.1039495E0],"tree_param":{"num_deleted":"0","num_feature":"10","num_nodes":"11","size_leaf_vector":"1"}}]},"name":"gbtree"},"learner_model_param":{"base_score":"4.5954803E-1","boost_from_average":"1","num_class":"0","num_feature":"10","num_target":"1"},"objective":{"name":"binary:logistic","reg_loss_param":{"scale_pos_weight":"3.5999999"}}},"version":[2,2,0]}