{"learner":{"attributes":{},"feature_names":[],"feature_types":[],"gradient_booster":{"model":{"gbtree_model_param":{"num_parallel_tree":"1","num_trees":"38"},"iteration_indptr":[0,1,2,3,4,5,6,7,8,9,10,11,12,13,14,15,16,17,18,19,20,21,22,23,24,25,26,27,28,29,30,31,32,33,34,35,36,37,38],"tree_info":[0,0,0,0,0,0,0,0,0,0,0,0,0,0,0,0,0,0,0,0,0,0,0,0,0,0,0,0,0,0,0,0,0,0,0,0,0,0],"trees":[{"base_weights":[1.5647566E-2,5.216027E-1,-6.116289E-1,-2.6724959E-2,1.1248531E-1,-1.4514738E-1,1.4132337E-2,4.7346722E-2,-4.385956E-2],"categories":[],"categories_nodes":[],"categories_segments":[],"categories_sizes":[],"default_left":[0,0,0,0,0,0,0,0,0],"id":0,"left_children":[1,3,5,-1,-1,-1,7,-1,-1],"loss_changes":[8.01529E0,6.9451284E0,5.9523797E0,0E0,0E0,0E0,1.7586396E0,0E0,0E0],"parents":[2147483647,0,0,1,1,2,2,6,6],"right_children":[2,4,6,-1,-1,-1,8,-1,-1],"split_conditions":[1.4699265E-1,-3.0959904E-1,8.796816E-1,-2.6724959E-2,1.1248531E-1,-1.4514738E-1,1.003741E0,4.7346722E-2,-4.385956E-2],"split_indices":[1,0,1,0,0,0,1,0,0],"split_type":[0,0,0,0,0,0,0,0,0],"sum_hessian":[2.3249844E1,1.296271E1,1.0287133E1,5.8585916E0,7.104119E0,3.8288434E0,6.4582896E0,3.1830142E0,3.2752755E0],"tree_param":{"num_deleted":"0","num_feature":"10","num_nodes":"9","size_leaf_vector":"1"}},{"base_weights":[1.2883356E-2,4.8334953E-1,-5.553499E-1,-2.4282407E-2,1.05906226E-1,-1.2971027E-1,1.3445794E-2,4.42256E-2,-4.011601E-2],"categories":[],"categories_nodes":[],"categories_segments":[],"categories_sizes":[],"default_left":[0,0,0,0,0,0,0,0,0],"id":1,"left_children":[1,3,5,-1,-1,-1,7,-1,-1],"loss_changes":[6.734592E0,6.0125933E0,4.8359385E0,0E0,0E0,0E0,1.5025978E0,0E0,0E0],"parents":[2147483647,0,0,1,1,2,2,6,6],"right_children":[2,4,6,-1,-1,-1,8,-1,-1],"split_conditions":[1.4699265E-1,-3.0959904E-1,8.796816E-1,-2.4282407E-2,1.05906226E-1,-1.2971027E-1,1.003741E0,4.42256E-2,-4.011601E-2],"split_indices":[1,0,1,0,0,0,1,0,0],"split_type":[0,0,0,0,0,0,0,0,0],"sum_hessian":[2.3187538E1,1.2766747E1,1.042079E1,5.901335E0,6.8654127E0,3.9670362E0,6.453754E0,3.1397483E0,3.3140054E0],"tree_param":{"num_deleted":"0","num_feature":"10","num_nodes":"9","size_leaf_vector":"1"}},{"base_weights":[1.0725502E-2,4.489144E-1,-5.0641227E-1,-2.2079753E-2,1.00028634E-1,-1.17030576E-1,1.2885129E-2,4.1320577E-2,-3.6736038E-2],"categories":[],"categories_nodes":[],"categories_segments":[],"categories_sizes":[],"default_left":[0,0,0,0,0,0,0,0,0],"id":2,"left_children":[1,3,5,-1,-1,-1,7,-1,-1],"loss_changes":[5.678707E0,5.225275E0,3.9812732E0,0E0,0E0,0E0,1.284954E0,0E0,0E0],"parents":[2147483647,0,0,1,1,2,2,6,6],"right_children":[2,4,6,-1,-1,-1,8,-1,-1],"split_conditions":[1.4699265E-1,-3.0959904E-1,8.796816E-1,-2.2079753E-2,1.00028634E-1,-1.17030576E-1,1.003741E0,4.1320577E-2,-3.6736038E-2],"split_indices":[1,0,1,0,0,0,1,0,0],"split_type":[0,0,0,0,0,0,0,0,0],"sum_hessian":[2.3056816E1,1.2552537E1,1.0504278E1,5.9387326E0,6.613804E0,4.0600686E0,6.44421E0,3.0970106E0,3.3471992E0],"tree_param":{"num_deleted":"0","num_feature":"10","num_nodes":"9","size_leaf_vector":"1"}},{"base_weights":[9.0377545E-3,4.1766185E-1,-4.6337053E-1,-2.008982E-2,9.4708085E-2,-4.4994783E-3,-1.19943514E-1,-4.9594052E-2,5.6412894E-2],"categories":[],"categories_nodes":[],"categories_segments":[],"categories_sizes":[],"default_left":[0,0,0,0,0,0,0,0,0],"id":3,"left_children":[1,3,5,-1,-1,7,-1,-1,-1],"loss_changes":[4.8023996E0,4.5548725E0,3.8948922E0,0E0,0E0,2.548023E0,0E0,0E0,0E0],"parents":[2147483647,0,0,1,1,2,2,5,5],"right_children":[2,4,6,-1,-1,8,-1,-1,-1],"split_conditions":[1.4699265E-1,-3.0959904E-1,1.2535664E0,-2.008982E-2,9.4708085E-2,1.5394877E-1,-1.19943514E-1,-4.9594052E-2,5.6412894E-2],"split_indices":[1,0,7,0,0,0,0,0,0],"split_type":[0,0,0,0,0,0,0,0,0],"sum_hessian":[2.2875513E1,1.2327956E1,1.0547558E1,5.9715157E0,6.3564405E0,7.1169086E0,3.430649E0,3.886127E0,3.2307816E0],"tree_param":{"num_deleted":"0","num_feature":"10","num_nodes":"9","size_leaf_vector":"1"}},{"base_weights":[7.378108E-3,3.8910794E-1,-4.23616E-1,-1.8289318E-2,8.983643E-2,-1.0397064E-1,5.3648803E-2,4.023345E-2,-2.7969364E-2],"categories":[],"categories_nodes":[],"categories_segments":[],"categories_sizes":[],"default_left":[0,0,0,0,0,0,0,0,0],"id":4,"left_children":[1,3,5,-1,-1,-1,7,-1,-1],"loss_changes":[4.066983E0,3.979992E0,3.4721758E0,0E0,0E0,0E0,9.840372E-1,0E0,0E0],"parents":[2147483647,0,0,1,1,2,2,6,6],"right_children":[2,4,6,-1,-1,-1,8,-1,-1],"split_conditions":[1.4699265E-1,-3.0959904E-1,8.796816E-1,-1.8289318E-2,8.983643E-2,-1.0397064E-1,1.003741E0,4.023345E-2,-2.7969364E-2],"split_indices":[1,0,1,0,0,0,1,0,0],"split_type":[0,0,0,0,0,0,0,0,0],"sum_hessian":[2.2717924E1,1.2099038E1,1.0618886E1,6.0003057E0,6.098732E0,4.1208744E0,6.4980116E0,3.0747576E0,3.4232543E0],"tree_param":{"num_deleted":"0","num_feature":"10","num_nodes":"9","size_leaf_vector":"1"}},{"base_weights":[6.4410656E-3,3.9202315E-1,-4.2806628E-1,-1.3024499E-1,1.0732074E-1,3.160964E-1,-1.4704113E-1,5.090282E-2,-9.205686E-2,-4.5220717E-3,5.9932765E-2],"categories":[],"categories_nodes":[],"categories_segments":[],"categories_sizes":[],"default_left":[0,0,0,0,0,0,0,0,0,0,0],"id":5,"left_children":[1,3,5,7,-1,9,-1,-1,-1,-1,-1],"loss_changes":[4.1027107E0,4.75252E0,9.40112E0,4.627049E0,0E0,7.9921675E-1,0E0,0E0,0E0,0E0,0E0],"parents":[2147483647,0,0,1,1,2,2,3,3,5,5],"right_children":[2,4,6,8,-1,10,-1,-1,-1,-1,-1],"split_conditions":[9.284767E-1,9.089583E-1,-1.3199729E-1,-7.8772E-2,1.0732074E-1,-4.5769298E-1,-1.4704113E-1,5.090282E-2,-9.205686E-2,-4.5220717E-3,5.9932765E-2],"split_indices":[5,3,3,1,0,3,0,0,0,0,0],"split_type":[0,0,0,0,0,0,0,0,0,0,0],"sum_hessian":[2.2486568E1,1.1965845E1,1.0520722E1,7.230768E0,4.7350774E0,6.544876E0,3.9758465E0,4.194149E0,3.0366187E0,3.2452552E0,3.2996206E0],"tree_param":{"num_deleted":"0","num_feature":"10","num_nodes":"11","size_leaf_vector":"1"}},{"base_weights":[5.7207346E-3,-5.280625E-1,2.824954E-1,3.2802902E-2,-1.1657249E-1,-3.6870237E-2,5.595453E-1,8.585012E-2,-1.0774372E-2],"categories":[],"categories_nodes":[],"categories_segments":[],"categories_sizes":[],"default_left":[0,0,0,0,0,0,0,0,0],"id":6,"left_children":[1,3,5,-1,-1,-1,7,-1,-1],"loss_changes":[3.60006E0,4.9266877E0,3.0990195E0,0E0,0E0,0E0,2.4156437E0,0E0,0E0],"parents":[2147483647,0,0,1,1,2,2,6,6],"right_children":[2,4,6,-1,-1,-1,8,-1,-1],"split_conditions":[-4.4920686E-1,9.284767E-1,-6.7363465E-1,3.2802902E-2,-1.1657249E-1,-3.6870237E-2,-2.583101E-2,8.585012E-2,-1.0774372E-2],"split_indices":[4,5,3,0,0,0,0,0,0],"split_type":[0,0,0,0,0,0,0,0,0],"sum_hessian":[2.2358187E1,7.324451E0,1.5033735E1,3.3339896E0,3.9904613E0,4.388314E0,1.0645422E1,7.153839E0,3.4915824E0],"tree_param":{"num_deleted":"0","num_feature":"10","num_nodes":"9","size_leaf_vector":"1"}},{"base_weights":[3.768762E-3,3.4756255E-1,-3.7765294E-1,-1.8170042E-2,8.432948E-2,7.2965804E-3,-9.8207645E-2,-4.3749776E-2,5.1915508E-2],"categories":[],"categories_nodes":[],"categories_segments":[],"categories_sizes":[],"default_left":[0,0,0,0,0,0,0,0,0],"id":7,"left_children":[1,3,5,-1,-1,7,-1,-1,-1],"loss_changes":[3.1776955E0,3.4957256E0,2.6811812E0,0E0,0E0,2.0516093E0,0E0,0E0,0E0],"parents":[2147483647,0,0,1,1,2,2,5,5],"right_children":[2,4,6,-1,-1,8,-1,-1,-1],"split_conditions":[1.4699265E-1,-3.0959904E-1,1.2535664E0,-1.8170042E-2,8.432948E-2,9.207947E-1,-9.8207645E-2,-4.3749776E-2,5.1915508E-2],"split_indices":[1,0,7,0,0,1,0,0,0],"split_type":[0,0,0,0,0,0,0,0,0],"sum_hessian":[2.2232119E1,1.1739507E1,1.0492613E1,5.984109E0,5.7553973E0,7.0136423E0,3.4789703E0,3.8303897E0,3.1832528E0],"tree_param":{"num_deleted":"0","num_feature":"10","num_nodes":"9","size_leaf_vector":"1"}},{"base_weights":[2.9606286E-3,3.363511E-1,-3.6124733E-1,-1.402922E-1,9.951138E-2,2.9855374E-1,-1.2618858E-1,-9.059931E-2,4.8632104E-2,-4.5372266E-3,5.6649733E-2],"categories":[],"categories_nodes":[],"categories_segments":[],"categories_sizes":[],"default_left":[0,0,0,0,0,0,0,0,0,0,0],"id":8,"left_children":[1,3,5,7,-1,9,-1,-1,-1,-1,-1],"loss_changes":[2.916122E0,4.0752E0,7.199539E0,4.3503046E0,0E0,7.1090096E-1,0E0,0E0,0E0,0E0,0E0],"parents":[2147483647,0,0,1,1,2,2,3,3,5,5],"right_children":[2,4,6,8,-1,10,-1,-1,-1,-1,-1],"split_conditions":[9.284767E-1,9.089583E-1,-1.3199729E-1,5.4224586E-1,9.951138E-2,-4.5769298E-1,-1.2618858E-1,-9.059931E-2,4.8632104E-2,-4.5372266E-3,5.6649733E-2],"split_indices":[5,3,3,4,0,3,0,0,0,0,0],"split_type":[0,0,0,0,0,0,0,0,0,0,0],"sum_hessian":[2.2015453E1,1.1533943E1,1.0481511E1,7.148634E0,4.3853087E0,6.435454E0,4.0460567E0,3.0165956E0,4.132038E0,3.1819034E0,3.2535505E0],"tree_param":{"num_deleted":"0","num_feature":"10","num_nodes":"11","size_leaf_vector":"1"}},{"base_weights":[2.6759752E-3,3.261132E-1,-3.526871E-1,6.354899E-1,-4.1076254E-2,-8.570497E-2,4.342065E-2,-1.0064631E-2,1.0252934E-1,2.8101763E-2,-2.1423524E-2],"categories":[],"categories_nodes":[],"categories_segments":[],"categories_sizes":[],"default_left":[0,0,0,0,0,0,0,0,0,0,0],"id":9,"left_children":[1,3,5,7,-1,-1,9,-1,-1,-1,-1],"loss_changes":[2.7376E0,3.1026819E0,2.3052511E0,2.734976E0,0E0,0E0,5.0773805E-1,0E0,0E0,0E0,0E0],"parents":[2147483647,0,0,1,1,2,2,3,3,6,6],"right_children":[2,4,6,8,-1,-1,10,-1,-1,-1,-1],"split_conditions":[1.4699265E-1,9.880185E-1,8.796816E-1,2.986089E-1,-4.1076254E-2,-8.570497E-2,-8.5838884E-1,-1.0064631E-2,1.0252934E-1,2.8101763E-2,-2.1423524E-2],"split_indices":[1,4,1,4,0,0,4,0,0,0,0],"split_type":[0,0,0,0,0,0,0,0,0,0,0],"sum_hessian":[2.1817453E1,1.1464885E1,1.0352568E1,8.171624E0,3.2932606E0,4.0420995E0,6.3104687E0,3.0858536E0,5.08577E0,3.2358575E0,3.0746112E0],"tree_param":{"num_deleted":"0","num_feature":"10","num_nodes":"11","size_leaf_vector":"1"}},{"base_weights":[1.7358676E-3,3.1462076E-1,-3.349229E-1,-1.3619299E-1,9.569259E-2,2.6732594E-1,-1.13653176E-1,5.777518E-2,-7.3715575E-2,-7.841743E-3,5.3860277E-2],"categories":[],"categories_nodes":[],"categories_segments":[],"categories_sizes":[],"default_left":[0,0,0,0,0,0,0,0,0,0,0],"id":10,"left_children":[1,3,5,7,-1,9,-1,-1,-1,-1,-1],"loss_changes":[2.4864037E0,3.6720586E0,5.7942653E0,3.8851283E0,0E0,7.272485E-1,0E0,0E0,0E0,0E0,0E0],"parents":[2147483647,0,0,1,1,2,2,3,3,5,5],"right_children":[2,4,6,8,-1,10,-1,-1,-1,-1,-1],"split_conditions":[9.284767E-1,9.089583E-1,-1.3199729E-1,-7.2690916E-1,9.569259E-2,-4.5769298E-1,-1.13653176E-1,5.777518E-2,-7.3715575E-2,-7.841743E-3,5.3860277E-2],"split_indices":[5,3,3,0,0,3,0,0,0,0,0],"split_type":[0,0,0,0,0,0,0,0,0,0,0],"sum_hessian":[2.1604263E1,1.1231427E1,1.0372835E1,7.062466E0,4.168961E0,6.303516E0,4.0693192E0,3.2454677E0,3.8169985E0,3.0839465E0,3.2195694E0],"tree_param":{"num_deleted":"0","num_feature":"10","num_nodes":"11","size_leaf_vector":"1"}},{"base_weights":[2.7375354E-3,3.165716E-1,-3.4289956E-1,-1.4905318E-2,7.842027E-2,-7.9403654E-2,1.5987491E-2,2.3888633E-2,-2.1503156E-2],"categories":[],"categories_nodes":[],"categories_segments":[],"categories_sizes":[],"default_left":[0,0,0,0,0,0,0,0,0],"id":11,"left_children":[1,3,5,-1,-1,-1,7,-1,-1],"loss_changes":[2.5412428E0,2.7894588E0,1.8183889E0,0E0,0E0,0E0,4.2169404E-1,0E0,0E0],"parents":[2147483647,0,0,1,1,2,2,6,6],"right_children":[2,4,6,-1,-1,-1,8,-1,-1],"split_conditions":[1.4699265E-1,-3.0959904E-1,8.796816E-1,-1.4905318E-2,7.842027E-2,-7.9403654E-2,-8.5838884E-1,2.3888633E-2,-2.1503156E-2],"split_indices":[1,0,1,0,0,0,4,0,0],"split_type":[0,0,0,0,0,0,0,0,0],"sum_hessian":[2.1426756E1,1.1274105E1,1.015265E1,5.990533E0,5.283572E0,3.9610004E0,6.19165E0,3.1338747E0,3.0577753E0],"tree_param":{"num_deleted":"0","num_feature":"10","num_nodes":"9","size_leaf_vector":"1"}},{"base_weights":[2.2447663E-3,-4.3135723E-1,2.3272608E-1,2.7734265E-2,-9.427751E-2,-3.918592E-2,5.1076585E-1,1.0209473E-1,1.2307438E-2],"categories":[],"categories_nodes":[],"categories_segments":[],"categories_sizes":[],"default_left":[0,0,0,0,0,0,0,0,0],"id":12,"left_children":[1,3,5,-1,-1,-1,7,-1,-1],"loss_changes":[2.3172772E0,3.1789007E0,2.8282173E0,0E0,0E0,0E0,2.0314703E0,0E0,0E0],"parents":[2147483647,0,0,1,1,2,2,6,6],"right_children":[2,4,6,-1,-1,-1,8,-1,-1],"split_conditions":[-4.4920686E-1,9.284767E-1,-6.7363465E-1,2.7734265E-2,-9.427751E-2,-3.918592E-2,-6.407905E-1,1.0209473E-1,1.2307438E-2],"split_indices":[4,5,3,0,0,0,0,0,0],"split_type":[0,0,0,0,0,0,0,0,0],"sum_hessian":[2.1182829E1,7.0493727E0,1.4133457E1,3.146623E0,3.9027498E0,4.2274957E0,9.905961E0,3.5719984E0,6.333963E0],"tree_param":{"num_deleted":"0","num_feature":"10","num_nodes":"9","size_leaf_vector":"1"}},{"base_weights":[2.7044653E-3,2.858193E-1,-3.05542E-1,5.906317E-1,-4.0152993E-2,-7.31329E-2,2.8598096E-2,9.431557E-2,3.9699357E-3,2.4828747E-2,-2.0196112E-2],"categories":[],"categories_nodes":[],"categories_segments":[],"categories_sizes":[],"default_left":[0,0,0,0,0,0,0,0,0,0,0],"id":13,"left_children":[1,3,5,7,-1,-1,9,-1,-1,-1,-1],"loss_changes":[2.0126252E0,2.754712E0,1.5923615E0,1.6579375E0,0E0,0E0,4.123559E-1,0E0,0E0,0E0,0E0],"parents":[2147483647,0,0,1,1,2,2,3,3,6,6],"right_children":[2,4,6,8,-1,-1,10,-1,-1,-1,-1],"split_conditions":[1.4699265E-1,9.880185E-1,8.796816E-1,-3.428039E-1,-4.0152993E-2,-7.31329E-2,-8.5838884E-1,9.431557E-2,3.9699357E-3,2.4828747E-2,-2.0196112E-2],"split_indices":[1,4,1,3,0,0,4,0,0,0,0],"split_type":[0,0,0,0,0,0,0,0,0,0,0],"sum_hessian":[2.1061583E1,1.10162525E1,1.004533E1,7.7293153E0,3.2869372E0,3.894266E0,6.151064E0,4.27924E0,3.4500754E0,3.1104069E0,3.0406573E0],"tree_param":{"num_deleted":"0","num_feature":"10","num_nodes":"11","size_leaf_vector":"1"}},{"base_weights":[2.3615868E-3,-4.7755953E-2,1.7861284E-1,-3.819433E-2,3.9608797E-1,7.887723E-2,-1.2665386E-2],"categories":[],"categories_nodes":[],"categories_segments":[],"categories_sizes":[],"default_left":[0,0,0,0,0,0,0],"id":14,"left_children":[1,-1,3,-1,5,-1,-1],"loss_changes":[1.9340022E0,0E0,2.1887107E0,0E0,2.672432E0,0E0,0E0],"parents":[2147483647,0,0,2,2,4,4],"right_children":[2,-1,4,-1,6,-1,-1],"split_conditions":[-6.4865345E-1,-4.7755953E-2,-6.7363465E-1,-3.819433E-2,9.284767E-1,7.887723E-2,-1.2665386E-2],"split_indices":[4,0,3,0,5,0,0],"split_type":[0,0,0,0,0,0,0],"sum_hessian":[2.0855726E1,5.142764E0,1.5712963E1,4.1806936E0,1.15322695E1,6.294739E0,5.23753E0],"tree_param":{"num_deleted":"0","num_feature":"10","num_nodes":"7","size_leaf_vector":"1"}},{"base_weights":[1.6174986E-3,-3.6302358E-1,1.9892338E-1,2.823633E-2,-8.3796374E-2,-3.48352E-2,4.5090494E-1,9.372681E-2,8.693236E-3],"categories":[],"categories_nodes":[],"categories_segments":[],"categories_sizes":[],"default_left":[0,0,0,0,0,0,0,0,0],"id":15,"left_children":[1,3,5,-1,-1,-1,7,-1,-1],"loss_changes":[1.6378777E0,2.6871672E0,2.1934829E0,0E0,0E0,0E0,1.7856181E0,0E0,0E0],"parents":[2147483647,0,0,1,1,2,2,6,6],"right_children":[2,4,6,-1,-1,-1,8,-1,-1],"split_conditions":[-4.4920686E-1,9.284767E-1,-6.7363465E-1,2.823633E-2,-8.3796374E-2,-3.48352E-2,-6.407905E-1,9.372681E-2,8.693236E-3],"split_indices":[4,5,3,0,0,0,0,0,0],"split_type":[0,0,0,0,0,0,0,0,0],"sum_hessian":[2.0761703E1,6.9947677E0,1.3766935E1,3.1371846E0,3.857583E0,4.2197237E0,9.547212E0,3.4123323E0,6.134879E0],"tree_param":{"num_deleted":"0","num_feature":"10","num_nodes":"9","size_leaf_vector":"1"}},{"base_weights":[2.2607665E-3,-4.0850434E-2,1.5508424E-1,3.2823294E-1,-4.2370703E-2,7.1442E-2,-2.1298187E-2],"categories":[],"categories_nodes":[],"categories_segments":[],"categories_sizes":[],"default_left":[0,0,0,0,0,0,0],"id":16,"left_children":[1,-1,3,5,-1,-1,-1],"loss_changes":[1.4203075E0,0E0,1.7906137E0,2.9212017E0,0E0,0E0,0E0],"parents":[2147483647,0,0,2,2,3,3],"right_children":[2,-1,4,6,-1,-1,-1],"split_conditions":[-6.4865345E-1,-4.0850434E-2,9.880185E-1,1.4699265E-1,-4.2370703E-2,7.1442E-2,-2.1298187E-2],"split_indices":[4,0,4,1,0,0,0],"split_type":[0,0,0,0,0,0,0],"sum_hessian":[2.0616323E1,5.1366854E0,1.5479639E1,1.2248369E1,3.23127E0,6.961161E0,5.2872076E0],"tree_param":{"num_deleted":"0","num_feature":"10","num_nodes":"7","size_leaf_vector":"1"}},{"base_weights":[9.578742E-4,2.3977293E-1,-2.4885458E-1,-1.9394052E-1,8.962554E-2,2.9107347E-2,-9.906153E-2,5.138114E-2,-7.77907E-2],"categories":[],"categories_nodes":[],"categories_segments":[],"categories_sizes":[],"default_left":[0,0,0,0,0,0,0,0,0],"id":17,"left_children":[1,3,5,7,-1,-1,-1,-1,-1],"loss_changes":[1.338708E0,3.4396598E0,4.6814113E0,3.5941498E0,0E0,0E0,0E0,0E0,0E0],"parents":[2147483647,0,0,1,1,2,2,3,3],"right_children":[2,4,6,8,-1,-1,-1,-1,-1],"split_conditions":[9.284767E-1,9.089583E-1,-1.3199729E-1,-7.2690916E-1,8.962554E-2,2.9107347E-2,-9.906153E-2,5.138114E-2,-7.77907E-2],"split_indices":[5,3,3,0,0,0,0,0,0],"split_type":[0,0,0,0,0,0,0,0,0],"sum_hessian":[2.0439178E1,1.0470145E1,9.969034E0,6.729073E0,3.7410717E0,6.121084E0,3.8479495E0,3.096424E0,3.6326492E0],"tree_param":{"num_deleted":"0","num_feature":"10","num_nodes":"9","size_leaf_vector":"1"}},{"base_weights":[1.0327019E-3,2.3006833E-1,-2.4099326E-1,-2.0085193E-2,7.041749E-2,-6.732586E-2,7.994405E-2,3.0219907E-2,-1.657366E-2],"categories":[],"categories_nodes":[],"categories_segments":[],"categories_sizes":[],"default_left":[0,0,0,0,0,0,0,0,0],"id":18,"left_children":[1,3,5,-1,-1,-1,7,-1,-1],"loss_changes":[1.2319493E0,2.473804E0,1.5531888E0,0E0,0E0,0E0,4.3758023E-1,0E0,0E0],"parents":[2147483647,0,0,1,1,2,2,6,6],"right_children":[2,4,6,-1,-1,-1,8,-1,-1],"split_conditions":[1.4699265E-1,-3.0959904E-1,8.796816E-1,-2.0085193E-2,7.041749E-2,-6.732586E-2,-8.5838884E-1,3.0219907E-2,-1.657366E-2],"split_indices":[1,0,1,0,0,0,4,0,0],"split_type":[0,0,0,0,0,0,0,0,0],"sum_hessian":[2.0224064E1,1.0416274E1,9.807791E0,5.75859E0,4.6576834E0,3.711305E0,6.096486E0,3.080061E0,3.0164251E0],"tree_param":{"num_deleted":"0","num_feature":"10","num_nodes":"9","size_leaf_vector":"1"}},{"base_weights":[1.0623807E-3,2.3318776E-1,-2.4129252E-1,-1.6230784E-1,8.59298E-2,2.628473E-2,-9.308609E-2,4.9589727E-2,-7.021297E-2],"categories":[],"categories_nodes":[],"categories_segments":[],"categories_sizes":[],"default_left":[0,0,0,0,0,0,0,0,0],"id":19,"left_children":[1,3,5,7,-1,-1,-1,-1,-1],"loss_changes":[1.2379532E0,2.922168E0,3.9879305E0,3.0941522E0,0E0,0E0,0E0,0E0,0E0],"parents":[2147483647,0,0,1,1,2,2,3,3],"right_children":[2,4,6,8,-1,-1,-1,-1,-1],"split_conditions":[9.284767E-1,9.089583E-1,-1.3199729E-1,-7.2690916E-1,8.59298E-2,2.628473E-2,-9.308609E-2,4.9589727E-2,-7.021297E-2],"split_indices":[5,3,3,0,0,0,0,0,0],"split_type":[0,0,0,0,0,0,0,0,0],"sum_hessian":[2.0005253E1,1.0237597E1,9.767655E0,6.7282963E0,3.5093012E0,5.999948E0,3.7677069E0,3.0683835E0,3.659913E0],"tree_param":{"num_deleted":"0","num_feature":"10","num_nodes":"9","size_leaf_vector":"1"}},{"base_weights":[1.2897445E-3,2.263597E-1,-2.3675801E-1,5.201148E-1,-3.7863683E-2,-4.7369608E-1,2.3463422E-2,8.578347E-2,-1.0755685E-3,-7.286172E-2,-9.244267E-3],"categories":[],"categories_nodes":[],"categories_segments":[],"categories_sizes":[],"default_left":[0,0,0,0,0,0,0,0,0,0,0],"id":20,"left_children":[1,3,5,7,-1,9,-1,-1,-1,-1,-1],"loss_changes":[1.1671132E0,2.186365E0,1.2938693E0,1.4357376E0,0E0,6.4974666E-1,0E0,0E0,0E0,0E0,0E0],"parents":[2147483647,0,0,1,1,2,2,3,3,5,5],"right_children":[2,4,6,8,-1,10,-1,-1,-1,-1,-1],"split_conditions":[1.4699265E-1,9.880185E-1,9.089583E-1,-3.428039E-1,-3.7863683E-2,1.003741E0,2.3463422E-2,8.578347E-2,-1.0755685E-3,-7.286172E-2,-9.244267E-3],"split_indices":[1,4,3,3,0,1,0,0,0,0,0],"split_type":[0,0,0,0,0,0,0,0,0,0,0],"sum_hessian":[1.9783405E1,1.0194132E1,9.5892725E0,6.956646E0,3.2374866E0,6.378387E0,3.2108858E0,3.8753753E0,3.0812705E0,3.2764878E0,3.1018991E0],"tree_param":{"num_deleted":"0","num_feature":"10","num_nodes":"11","size_leaf_vector":"1"}},{"base_weights":[9.528753E-4,-3.77746E-2,1.4210562E-1,-3.9297055E-2,3.5693854E-1,7.016775E-2,-7.942498E-3],"categories":[],"categories_nodes":[],"categories_segments":[],"categories_sizes":[],"default_left":[0,0,0,0,0,0,0],"id":21,"left_children":[1,-1,3,-1,5,-1,-1],"loss_changes":[1.1556057E0,0E0,1.9500306E0,0E0,1.8244227E0,0E0,0E0],"parents":[2147483647,0,0,2,2,4,4],"right_children":[2,-1,4,-1,6,-1,-1],"split_conditions":[-6.4865345E-1,-3.77746E-2,-6.7363465E-1,-3.9297055E-2,9.284767E-1,7.016775E-2,-7.942498E-3],"split_indices":[4,0,3,0,5,0,0],"split_type":[0,0,0,0,0,0,0],"sum_hessian":[1.9614317E1,4.870662E0,1.4743655E1,3.9861963E0,1.075746E1,5.669997E0,5.087462E0],"tree_param":{"num_deleted":"0","num_feature":"10","num_nodes":"7","size_leaf_vector":"1"}},{"base_weights":[4.4964152E-4,-2.9346067E-1,1.6164011E-1,-7.241654E-2,2.4384318E-2,-3.5897076E-2,4.1003674E-1,8.724174E-2,5.1669637E-3],"categories":[],"categories_nodes":[],"categories_segments":[],"categories_sizes":[],"default_left":[0,0,0,0,0,0,0,0,0],"id":22,"left_children":[1,3,5,-1,-1,-1,7,-1,-1],"loss_changes":[1.0191656E0,1.939991E0,1.943581E0,0E0,0E0,0E0,1.590575E0,0E0,0E0],"parents":[2147483647,0,0,1,1,2,2,6,6],"right_children":[2,4,6,-1,-1,-1,8,-1,-1],"split_conditions":[-4.4920686E-1,1.5394877E-1,-6.7363465E-1,-7.241654E-2,2.4384318E-2,-3.5897076E-2,-6.407905E-1,8.724174E-2,5.1669637E-3],"split_indices":[4,0,3,0,0,0,0,0,0],"split_type":[0,0,0,0,0,0,0,0,0],"sum_hessian":[1.9511232E1,6.6199713E0,1.289126E1,3.4814515E0,3.13852E0,4.02021E0,8.87105E0,3.2470906E0,5.6239595E0],"tree_param":{"num_deleted":"0","num_feature":"10","num_nodes":"9","size_leaf_vector":"1"}},{"base_weights":[1.067968E-3,1.8020691E-1,-2.4990077E-1,-2.0652634E-1,6.505411E-2,3.3783123E-2,-8.474095E-2,2.5636926E-2,-6.485669E-2],"categories":[],"categories_nodes":[],"categories_segments":[],"categories_sizes":[],"default_left":[0,0,0,0,0,0,0,0,0],"id":23,"left_children":[1,3,5,7,-1,-1,-1,-1,-1],"loss_changes":[9.6168613E-1,2.4040294E0,3.41558E0,1.7227274E0,0E0,0E0,0E0,0E0,0E0],"parents":[2147483647,0,0,1,1,2,2,3,3],"right_children":[2,4,6,8,-1,-1,-1,-1,-1],"split_conditions":[-5.9954636E-2,-4.5769298E-1,9.284767E-1,-6.2152284E-1,6.505411E-2,3.3783123E-2,-8.474095E-2,2.5636926E-2,-6.485669E-2],"split_indices":[3,3,5,1,0,0,0,0,0],"split_type":[0,0,0,0,0,0,0,0,0],"sum_hessian":[1.9388956E1,1.1478019E1,7.9109383E0,6.6066127E0,4.8714056E0,4.207189E0,3.7037492E0,3.432355E0,3.174258E0],"tree_param":{"num_deleted":"0","num_feature":"10","num_nodes":"9","size_leaf_vector":"1"}},{"base_weights":[-9.5629344E-5,1.9882423E-1,-2.0772538E-1,-2.216372E-2,6.761118E-2,-6.278414E-2,9.5150545E-3],"categories":[],"categories_nodes":[],"categories_segments":[],"categories_sizes":[],"default_left":[0,0,0,0,0,0,0],"id":24,"left_children":[1,3,5,-1,-1,-1,-1],"loss_changes":[8.75588E-1,2.322674E0,1.3795793E0,0E0,0E0,0E0,0E0],"parents":[2147483647,0,0,1,1,2,2],"right_children":[2,4,6,-1,-1,-1,-1],"split_conditions":[1.4699265E-1,-3.0959904E-1,8.796816E-1,-2.216372E-2,6.761118E-2,-6.278414E-2,9.5150545E-3],"split_indices":[1,0,1,0,0,0,0],"split_type":[0,0,0,0,0,0,0],"sum_hessian":[1.9199837E1,9.827246E0,9.372591E0,5.5094156E0,4.31783E0,3.4768944E0,5.8956966E0],"tree_param":{"num_deleted":"0","num_feature":"10","num_nodes":"7","size_leaf_vector":"1"}},{"base_weights":[-2.4201607E-4,-3.2704495E-2,1.23012684E-1,2.904815E-1,-3.957994E-2,6.383042E-2,-1.6643321E-2],"categories":[],"categories_nodes":[],"categories_segments":[],"categories_sizes":[],"default_left":[0,0,0,0,0,0,0],"id":25,"left_children":[1,-1,3,5,-1,-1,-1],"loss_changes":[8.461022E-1,0E0,1.4403384E0,2.030599E0,0E0,0E0,0E0],"parents":[2147483647,0,0,2,2,3,3],"right_children":[2,-1,4,6,-1,-1,-1],"split_conditions":[-6.4865345E-1,-3.2704495E-2,9.880185E-1,1.4699265E-1,-3.957994E-2,6.383042E-2,-1.6643321E-2],"split_indices":[4,0,4,1,0,0,0],"split_type":[0,0,0,0,0,0,0],"sum_hessian":[1.9006742E1,4.7524586E0,1.4254285E1,1.1108608E1,3.1456766E0,6.0818563E0,5.026752E0],"tree_param":{"num_deleted":"0","num_feature":"10","num_nodes":"7","size_leaf_vector":"1"}},{"base_weights":[-1.1409322E-3,1.6758475E-1,-2.3900275E-1,-2.1189874E-1,6.237001E-2,3.2684032E-2,-8.139074E-2,2.2598855E-2,-6.2239196E-2],"categories":[],"categories_nodes":[],"categories_segments":[],"categories_sizes":[],"default_left":[0,0,0,0,0,0,0,0,0],"id":26,"left_children":[1,3,5,7,-1,-1,-1,-1,-1],"loss_changes":[8.3676803E-1,2.2440886E0,3.0799842E0,1.471993E0,0E0,0E0,0E0,0E0,0E0],"parents":[2147483647,0,0,1,1,2,2,3,3],"right_children":[2,4,6,8,-1,-1,-1,-1,-1],"split_conditions":[-5.9954636E-2,-4.5769298E-1,9.284767E-1,-6.2152284E-1,6.237001E-2,3.2684032E-2,-8.139074E-2,2.2598855E-2,-6.2239196E-2],"split_indices":[3,3,5,1,0,0,0,0,0],"split_type":[0,0,0,0,0,0,0,0,0],"sum_hessian":[1.8851667E1,1.1201448E1,7.6502185E0,6.406626E0,4.7948227E0,4.072952E0,3.5772667E0,3.317357E0,3.089269E0],"tree_param":{"num_deleted":"0","num_feature":"10","num_nodes":"9","size_leaf_vector":"1"}},{"base_weights":[-2.2065826E-3,9.3629725E-2,-3.703932E-2,2.3348445E-1,-3.76428E-2,6.950278E-2,-1.019451E-2],"categories":[],"categories_nodes":[],"categories_segments":[],"categories_sizes":[],"default_left":[0,0,0,0,0,0,0],"id":27,"left_children":[1,3,-1,5,-1,-1,-1],"loss_changes":[7.285499E-1,1.1661043E0,0E0,2.1233292E0,0E0,0E0,0E0],"parents":[2147483647,0,0,1,1,3,3],"right_children":[2,4,-1,6,-1,-1,-1],"split_conditions":[1.0093945E0,9.880185E-1,-3.703932E-2,1.4699265E-1,-3.76428E-2,6.950278E-2,-1.019451E-2],"split_indices":[3,4,0,1,0,0,0],"split_type":[0,0,0,0,0,0,0],"sum_hessian":[1.8664373E1,1.5401242E1,3.2631316E0,1.2257572E1,3.1436696E0,4.707756E0,7.549816E0],"tree_param":{"num_deleted":"0","num_feature":"10","num_nodes":"7","size_leaf_vector":"1"}},{"base_weights":[-2.4671592E-3,-3.3581953E-2,1.0039113E-1,3.3673984E-1,-3.6868878E-2,7.9277225E-2,6.3725994E-3],"categories":[],"categories_nodes":[],"categories_segments":[],"categories_sizes":[],"default_left":[0,0,0,0,0,0,0],"id":28,"left_children":[1,-1,3,5,-1,-1,-1],"loss_changes":[7.047126E-1,0E0,1.867511E0,1.3164006E0,0E0,0E0,0E0],"parents":[2147483647,0,0,2,2,3,3],"right_children":[2,-1,4,6,-1,-1,-1],"split_conditions":[-6.7363465E-1,-3.3581953E-2,1.2535664E0,-6.366728E-1,-3.6868878E-2,7.9277225E-2,6.3725994E-3],"split_indices":[3,0,7,0,0,0,0],"split_type":[0,0,0,0,0,0,0],"sum_hessian":[1.8569477E1,3.8446183E0,1.4724859E1,9.979005E0,4.7458544E0,3.0240169E0,6.9549885E0],"tree_param":{"num_deleted":"0","num_feature":"10","num_nodes":"7","size_leaf_vector":"1"}},{"base_weights":[-1.2042806E-3,9.162876E-2,-3.705716E-2,-1.3124439E-1,6.1125275E-2,-4.323409E-2,2.8886506E-2],"categories":[],"categories_nodes":[],"categories_segments":[],"categories_sizes":[],"default_left":[0,0,0,0,0,0,0],"id":29,"left_children":[1,3,-1,5,-1,-1,-1],"loss_changes":[7.0173234E-1,1.9754527E0,0E0,1.6777186E0,0E0,0E0,0E0],"parents":[2147483647,0,0,1,1,3,3],"right_children":[2,4,-1,6,-1,-1,-1],"split_conditions":[9.880185E-1,2.986089E-1,-3.705716E-2,1.5394877E-1,6.1125275E-2,-4.323409E-2,2.8886506E-2],"split_indices":[4,4,0,0,0,0,0],"split_type":[0,0,0,0,0,0,0],"sum_hessian":[1.8474693E1,1.5364953E1,3.1097407E0,1.1275972E1,4.08898E0,6.5514035E0,4.7245693E0],"tree_param":{"num_deleted":"0","num_feature":"10","num_nodes":"7","size_leaf_vector":"1"}},{"base_weights":[-3.3318056E-4,3.1024054E-2,-1.068573E-1,2.7943727E-1,-5.6181604E-1,-2.4628915E-2,8.702847E-2,-7.398441E-2,-2.354316E-2],"categories":[],"categories_nodes":[],"categories_segments":[],"categories_sizes":[],"default_left":[0,0,0,0,0,0,0,0,0],"id":30,"left_children":[1,-1,3,5,7,-1,-1,-1,-1],"loss_changes":[6.7389035E-1,0E0,2.8221774E0,2.969304E0,2.497375E-1,0E0,0E0,0E0,0E0],"parents":[2147483647,0,0,2,2,3,3,4,4],"right_children":[2,-1,4,6,8,-1,-1,-1,-1],"split_conditions":[-7.2690916E-1,3.1024054E-2,-3.0871245E-1,-6.4865345E-1,-2.8121436E-1,-2.4628915E-2,8.702847E-2,-7.398441E-2,-2.354316E-2],"split_indices":[0,0,4,4,0,0,0,0,0],"split_type":[0,0,0,0,0,0,0,0,0],"sum_hessian":[1.8367273E1,4.20247E0,1.41648035E1,7.869119E0,6.2956843E0,4.4726167E0,3.3965023E0,3.2539914E0,3.0416927E0],"tree_param":{"num_deleted":"0","num_feature":"10","num_nodes":"9","size_leaf_vector":"1"}},{"base_weights":[-1.5672066E-4,1.5982792E-1,-2.2499672E-1,-1.9380906E-1,5.8420833E-2,2.992785E-2,-7.586368E-2,2.0721331E-2,-5.612712E-2],"categories":[],"categories_nodes":[],"categories_segments":[],"categories_sizes":[],"default_left":[0,0,0,0,0,0,0,0,0],"id":31,"left_children":[1,3,5,7,-1,-1,-1,-1,-1],"loss_changes":[7.3041284E-1,1.8938034E0,2.5887446E0,1.180619E0,0E0,0E0,0E0,0E0,0E0],"parents":[2147483647,0,0,1,1,2,2,3,3],"right_children":[2,4,6,8,-1,-1,-1,-1,-1],"split_conditions":[-5.9954636E-2,-4.5769298E-1,9.284767E-1,-6.2152284E-1,5.8420833E-2,2.992785E-2,-7.586368E-2,2.0721331E-2,-5.612712E-2],"split_indices":[3,3,5,1,0,0,0,0,0],"split_type":[0,0,0,0,0,0,0,0,0],"sum_hessian":[1.8305918E1,1.0864467E1,7.4414506E0,6.222532E0,4.641935E0,3.9751937E0,3.466257E0,3.1839206E0,3.038611E0],"tree_param":{"num_deleted":"0","num_feature":"10","num_nodes":"9","size_leaf_vector":"1"}},{"base_weights":[-1.2287477E-3,1.4731911E-1,-2.101751E-1,-1.796731E-1,5.449098E-2,2.7797153E-2,-7.066517E-2,1.9270603E-2,-5.1779337E-2],"categories":[],"categories_nodes":[],"categories_segments":[],"categories_sizes":[],"default_left":[0,0,0,0,0,0,0,0,0],"id":32,"left_children":[1,3,5,7,-1,-1,-1,-1,-1],"loss_changes":[6.243361E-1,1.6270072E0,2.2214892E0,1.0070516E0,0E0,0E0,0E0,0E0,0E0],"parents":[2147483647,0,0,1,1,2,2,3,3],"right_children":[2,4,6,8,-1,-1,-1,-1,-1],"split_conditions":[-5.9954636E-2,-4.5769298E-1,9.284767E-1,-6.2152284E-1,5.449098E-2,2.7797153E-2,-7.066517E-2,1.9270603E-2,-5.1779337E-2],"split_indices":[3,3,5,1,0,0,0,0,0],"split_type":[0,0,0,0,0,0,0,0,0],"sum_hessian":[1.8117313E1,1.0761499E1,7.3558135E0,6.205763E0,4.5557365E0,3.9309397E0,3.4248738E0,3.1579313E0,3.0478315E0],"tree_param":{"num_deleted":"0","num_feature":"10","num_nodes":"9","size_leaf_vector":"1"}},{"base_weights":[-2.1255286E-3,1.7625579E-1,-1.8533182E-1,-2.2901786E-2,6.4582735E-2,-5.922369E-2,1.0208852E-2],"categories":[],"categories_nodes":[],"categories_segments":[],"categories_sizes":[],"default_left":[0,0,0,0,0,0,0],"id":33,"left_children":[1,3,5,-1,-1,-1,-1],"loss_changes":[6.5136564E-1,2.0708852E0,1.2097559E0,0E0,0E0,0E0,0E0],"parents":[2147483647,0,0,1,1,2,2],"right_children":[2,4,6,-1,-1,-1,-1],"split_conditions":[1.4699265E-1,-3.0959904E-1,8.796816E-1,-2.2901786E-2,6.4582735E-2,-5.922369E-2,1.0208852E-2],"split_indices":[1,0,1,0,0,0,0],"split_type":[0,0,0,0,0,0,0],"sum_hessian":[1.7931728E1,9.104725E0,8.827003E0,5.1619115E0,3.9428136E0,3.2149818E0,5.6120205E0],"tree_param":{"num_deleted":"0","num_feature":"10","num_nodes":"7","size_leaf_vector":"1"}},{"base_weights":[-2.1119483E-3,2.9094148E-2,-1.0249575E-1,2.5894448E-1,-5.1590424E-2,-2.4360487E-2,8.34356E-2],"categories":[],"categories_nodes":[],"categories_segments":[],"categories_sizes":[],"default_left":[0,0,0,0,0,0,0],"id":34,"left_children":[1,-1,3,5,-1,-1,-1],"loss_changes":[5.8178353E-1,0E0,2.332358E0,2.6660879E0,0E0,0E0,0E0],"parents":[2147483647,0,0,2,2,3,3],"right_children":[2,-1,4,6,-1,-1,-1],"split_conditions":[-7.2690916E-1,2.9094148E-2,-3.0871245E-1,-6.4865345E-1,-5.1590424E-2,-2.4360487E-2,8.34356E-2],"split_indices":[0,0,4,4,0,0,0],"split_type":[0,0,0,0,0,0,0],"sum_hessian":[1.776289E1,4.047784E0,1.3715107E1,7.516829E0,6.1982775E0,4.3202653E0,3.196564E0],"tree_param":{"num_deleted":"0","num_feature":"10","num_nodes":"7","size_leaf_vector":"1"}},{"base_weights":[3.8312856E-4,-1.5027918E-1,2.2005142E-1,-4.4176087E-1,2.6652206E-2,6.175551E-2,-3.2771237E-2,-6.526045E-2,-1.1658294E-2],"categories":[],"categories_nodes":[],"categories_segments":[],"categories_sizes":[],"default_left":[0,0,0,0,0,0,0,0,0],"id":35,"left_children":[1,3,5,7,-1,-1,-1,-1,-1],"loss_changes":[6.522802E-1,1.538223E0,1.9480951E0,4.2145348E-1,0E0,0E0,0E0,0E0,0E0],"parents":[2147483647,0,0,1,1,2,2,3,3],"right_children":[2,4,6,8,-1,-1,-1,-1,-1],"split_conditions":[2.986089E-1,1.5394877E-1,9.880185E-1,1.003741E0,2.6652206E-2,6.175551E-2,-3.2771237E-2,-6.526045E-2,-1.1658294E-2],"split_indices":[4,0,4,1,0,0,0,0,0],"split_type":[0,0,0,0,0,0,0,0,0],"sum_hessian":[1.7709696E1,1.0692197E1,7.017498E0,6.256767E0,4.43543E0,3.992669E0,3.0248291E0,3.1848273E0,3.0719395E0],"tree_param":{"num_deleted":"0","num_feature":"10","num_nodes":"9","size_leaf_vector":"1"}},{"base_weights":[-5.521068E-4,1.481077E-1,-2.128241E-1,-1.6741619E-2,5.2752312E-2,2.5823984E-2,-6.8697125E-2],"categories":[],"categories_nodes":[],"categories_segments":[],"categories_sizes":[],"default_left":[0,0,0,0,0,0,0],"id":36,"left_children":[1,3,5,-1,-1,-1,-1],"loss_changes":[6.181639E-1,1.4677937E0,1.9792646E0,0E0,0E0,0E0,0E0],"parents":[2147483647,0,0,1,1,2,2],"right_children":[2,4,6,-1,-1,-1,-1],"split_conditions":[-5.9954636E-2,-4.5769298E-1,9.284767E-1,-1.6741619E-2,5.2752312E-2,2.5823984E-2,-6.8697125E-2],"split_indices":[3,3,5,0,0,0,0],"split_type":[0,0,0,0,0,0,0],"sum_hessian":[1.7590353E1,1.0523051E1,7.0673018E0,6.050323E0,4.4727283E0,3.7735999E0,3.2937021E0],"tree_param":{"num_deleted":"0","num_feature":"10","num_nodes":"7","size_leaf_vector":"1"}},{"base_weights":[-7.993546E-4,1.8090233E-1,-1.8661623E-1,-1.8781712E-2,6.1517764E-2,-5.6986034E-2,8.374781E-3],"categories":[],"categories_nodes":[],"categories_segments":[],"categories_sizes":[],"default_left":[0,0,0,0,0,0,0],"id":37,"left_children":[1,3,5,-1,-1,-1,-1],"loss_changes":[6.5671957E-1,1.690617E0,1.0439196E0,0E0,0E0,0E0,0E0],"parents":[2147483647,0,0,1,1,2,2],"right_children":[2,4,6,-1,-1,-1,-1],"split_conditions":[1.4699265E-1,-3.0959904E-1,8.796816E-1,-1.8781712E-2,6.1517764E-2,-5.6986034E-2,8.374781E-3],"split_indices":[1,0,1,0,0,0,0],"split_type":[0,0,0,0,0,0,0],"sum_hessian":[1.7450846E1,8.836495E0,8.614349E0,5.0858736E0,3.7506218E0,3.1050928E0,5.509257E0],"tree_param":{"num_deleted":"0","num_feature":"10","num_nodes":"7","size_leaf_vector":"1"}}]},"name":"gbtree"},"learner_model_param":{"base_score":"6.3909274E-1","boost_from_average":"1","num_class":"0","num_feature":"10","num_target":"1"},"objective":{"name":"binary:logistic","reg_loss_param":{"scale_pos_weight":"3.5999999"}}},"version":[2,2,0]}